{
  "BpNeuralNetworkModelPara": {
    "ModelParam": {
      "InputSize": 2,
      "OutputSize": 2,
      "HiddenLayer": 3,
      "HiddenSize": 8
    },
    "ModelWeightLayer_Input": [
      [
        [
          -0.02970021404325962,
          -0.5250607132911682
        ],
        [
          0.5085657835006714,
          0.25119510293006897
        ],
        [
          0.03857528418302536,
          0.5919873118400574
        ],
        [
          -0.7042433023452759,
          -0.024345675483345985
        ],
        [
          -0.4377443790435791,
          -0.3510226011276245
        ],
        [
          0.6358300447463989,
          -0.2351863533258438
        ],
        [
          -0.42274171113967896,
          0.3817654848098755
        ],
        [
          0.06358014047145844,
          -0.6220660209655762
        ]
      ],
      [
        [
          -0.02970021404325962,
          -0.5250607132911682
        ],
        [
          0.5085657835006714,
          0.25119510293006897
        ],
        [
          0.03857528418302536,
          0.5919873118400574
        ],
        [
          -0.7042433023452759,
          -0.024345675483345985
        ],
        [
          -0.4377443790435791,
          -0.3510226011276245
        ],
        [
          0.6358300447463989,
          -0.2351863533258438
        ],
        [
          -0.42274171113967896,
          0.3817654848098755
        ],
        [
          0.06358014047145844,
          -0.6220660209655762
        ]
      ]
    ],
    "ModelWeightLayer_0": [
      [
        0.09469743072986603,
        -0.9133852124214172,
        -1.0093812942504883,
        0.29052069783210754,
        0.5559797883033752,
        0.11541889607906342,
        0.046204548329114914,
        0.6915504336357117
      ],
      [
        0.4613484740257263,
        0.12618550658226013,
        -0.8725234270095825,
        -0.16260480880737305,
        -0.19090303778648376,
        0.43915125727653503,
        -0.862879753112793,
        0.36240342259407043
      ],
      [
        -0.1935989409685135,
        0.9018673300743103,
        0.4399597942829132,
        -0.7670263051986694,
        -0.9294171333312988,
        0.3935390114784241,
        -0.1728353351354599,
        -0.40500715374946594
      ],
      [
        -0.31206437945365906,
        0.7678619623184204,
        0.9957942366600037,
        -0.19826576113700867,
        -0.8107808828353882,
        0.04760802164673805,
        0.456800252199173,
        -0.8258824944496155
      ],
      [
        0.34012407064437866,
        -0.016678664833307266,
        -0.49606478214263916,
        -0.5877214074134827,
        -0.16245383024215698,
        0.8566932678222656,
        -0.6594818830490112,
        0.8797846436500549
      ],
      [
        0.17709752917289734,
        0.09345091134309769,
        -0.6553876399993896,
        -0.5568993091583252,
        0.06886942684650421,
        0.6262970566749573,
        -1.1422654390335083,
        1.0457953214645386
      ],
      [
        -0.19174177944660187,
        1.0223160982131958,
        0.3923245072364807,
        -0.8550325036048889,
        -0.6800123453140259,
        1.0064486265182495,
        -0.9222268462181091,
        -0.08875257521867752
      ],
      [
        0.05831793323159218,
        -0.4588555693626404,
        0.35424256324768066,
        0.21119825541973114,
        0.29433581233024597,
        -0.5805554389953613,
        0.8518152236938477,
        -0.5514492988586426
      ]
    ],
    "ModelWeightLayer_1": [
      [
        0.2487511932849884,
        -0.28057026863098145,
        -0.3068314790725708,
        0.1367216557264328,
        -0.41645294427871704,
        -0.4256318509578705,
        -0.9403120279312134,
        0.45098990201950073
      ],
      [
        -0.5793829560279846,
        -0.675177276134491,
        0.6431424021720886,
        1.1650390625,
        -0.7361025214195251,
        -0.783301591873169,
        0.044893112033605576,
        0.599363386631012
      ],
      [
        -0.5590553283691406,
        -0.08513371646404266,
        0.4868079721927643,
        0.6889610886573792,
        -0.1692386120557785,
        0.03425489366054535,
        0.5300844311714172,
        -0.29351121187210083
      ],
      [
        -0.26371949911117554,
        0.3413720428943634,
        0.19443346560001373,
        0.38854482769966125,
        0.2858233153820038,
        0.43430382013320923,
        0.7149518132209778,
        -0.5236735343933105
      ],
      [
        1.5137486457824707,
        0.30134591460227966,
        -1.3342336416244507,
        -1.2854188680648804,
        0.06367834657430649,
        0.2731974720954895,
        -1.4688596725463867,
        0.42954981327056885
      ],
      [
        0.899223804473877,
        0.5631879568099976,
        -0.7690356969833374,
        -0.731453537940979,
        0.7011751532554626,
        0.8319258689880371,
        -0.5582293272018433,
        -0.26133817434310913
      ],
      [
        -0.3908974826335907,
        0.4099869132041931,
        0.47751814126968384,
        0.14732487499713898,
        0.7787140607833862,
        0.5307333469390869,
        0.5231605172157288,
        -0.6433981657028198
      ],
      [
        -0.0963272675871849,
        -0.72469162940979,
        -0.44020649790763855,
        0.759384274482727,
        -1.0672364234924316,
        -1.5778900384902954,
        -1.169875144958496,
        1.1588016748428345
      ]
    ],
    "ModelWeightLayer_2": [
      [
        -0.017569154500961304,
        -0.08275654911994934,
        -0.22680094838142395,
        0.1883714497089386,
        0.058645009994506836,
        -0.058005958795547485,
        -0.31124451756477356,
        -0.09847590327262878
      ],
      [
        -0.16961413621902466,
        -0.21313728392124176,
        0.25085678696632385,
        -0.27691447734832764,
        0.11094838380813599,
        0.26946398615837097,
        0.05097454786300659,
        0.24651750922203064
      ],
      [
        0.1958741843700409,
        0.34165725111961365,
        0.15644970536231995,
        -0.043543606996536255,
        -0.24929022789001465,
        0.30547401309013367,
        0.12127518653869629,
        -0.25711119174957275
      ],
      [
        0.028032124042510986,
        -0.2812373638153076,
        0.3355468809604645,
        -0.302102267742157,
        0.15635934472084045,
        0.21540287137031555,
        0.23936310410499573,
        -0.048615068197250366
      ],
      [
        -0.2925049066543579,
        -0.11655601859092712,
        -0.27920228242874146,
        0.3509272038936615,
        -0.1468185931444168,
        -0.20561382174491882,
        -0.3112335801124573,
        -0.28161150217056274
      ],
      [
        -0.28532180190086365,
        0.17478474974632263,
        -0.13962425291538239,
        0.02145346999168396,
        0.09892573952674866,
        -0.24089793860912323,
        0.31150731444358826,
        -0.17593030631542206
      ],
      [
        -0.09297043085098267,
        -0.2523062527179718,
        -0.33794477581977844,
        -0.295154869556427,
        -0.24162936210632324,
        -0.0001704096794128418,
        -0.32760584354400635,
        -0.3127889931201935
      ],
      [
        0.08492881059646606,
        -0.0353541374206543,
        0.1269460916519165,
        -0.33159539103507996,
        0.14873895049095154,
        0.1569623053073883,
        -0.04217374324798584,
        0.21440455317497253
      ]
    ],
    "ModelWeightLayer_Output": [
      [
        -1.24118173122406,
        -0.03166625648736954,
        0.9430877566337585,
        1.3915021419525146,
        -2.567513942718506,
        -0.13198824226856232,
        1.6332918405532837,
        -2.9082131385803223
      ],
      [
        0.2997775971889496,
        2.12368106842041,
        0.7961891293525696,
        -0.0701913833618164,
        -2.3836288452148438,
        -2.066253900527954,
        -0.39672282338142395,
        2.179191827774048
      ]
    ],
    "ModelBiasLayer_Input":[
      0.44804108142852783,
      -0.3789539039134979,
      -0.07906137406826019,
      -0.7395451068878174,
      -0.0012530921958386898,
      -0.6408883929252625,
      -0.4185793399810791,
      -0.06816025078296661
    ],
    "ModelBiasLayer_0": [
      -0.03688979893922806,
      0.1800302416086197,
      0.23474709689617157,
      0.24039386212825775,
      -0.3922547698020935,
      -0.2948586344718933,
      0.03303942084312439,
      0.1849142462015152
    ],
    "ModelBiasLayer_1": [
      0.01800874061882496,
      0.03676677122712135,
      -0.24215780198574066,
      -0.015187452547252178,
      0.45579424500465393,
      -0.11413630843162537,
      -0.205040842294693,
      1.1372407674789429
    ],
    "ModelBiasLayer_2": [
      -0.06462138891220093,
      -0.11620926856994629,
      -0.05812513828277588,
      0.1467181146144867,
      0.2611101567745209,
      -0.21698710322380066,
      -0.0352000892162323,
      0.27661386132240295
    ],
    "ModelBiasLayer_Output": [
      0.7253519892692566,
      -0.07976049184799194
    ]
  },

  "#Metrics": {
    "MSE": 0.0007286178879439831,
    "R-Squared": 0.9994888305664062,
    "Training_Loss": 0.000861665781121701
  }
}

